channel_id,embedding_0,embedding_1,embedding_2,embedding_3,embedding_4,embedding_5,embedding_6,embedding_7,embedding_8,embedding_9,embedding_10,embedding_11,embedding_12,embedding_13,embedding_14,embedding_15,embedding_16,embedding_17,embedding_18,embedding_19,embedding_20,embedding_21,embedding_22,embedding_23,embedding_24,embedding_25,embedding_26,embedding_27,embedding_28,embedding_29,embedding_30,embedding_31,embedding_32,embedding_33,embedding_34,embedding_35,embedding_36,embedding_37,embedding_38,embedding_39,embedding_40,embedding_41,embedding_42,embedding_43,embedding_44,embedding_45,embedding_46,embedding_47,embedding_48,embedding_49,embedding_50,embedding_51,embedding_52,embedding_53,embedding_54,embedding_55,embedding_56,embedding_57,embedding_58,embedding_59,embedding_60,embedding_61,embedding_62,embedding_63,embedding_64,embedding_65,embedding_66,embedding_67,embedding_68,embedding_69,embedding_70,embedding_71,embedding_72,embedding_73,embedding_74,embedding_75,embedding_76,embedding_77,embedding_78,embedding_79,embedding_80,embedding_81,embedding_82,embedding_83,embedding_84,embedding_85,embedding_86,embedding_87,embedding_88,embedding_89,embedding_90,embedding_91,embedding_92,embedding_93,embedding_94,embedding_95,embedding_96,embedding_97,embedding_98,embedding_99,embedding_100,embedding_101,embedding_102,embedding_103,embedding_104,embedding_105,embedding_106,embedding_107,embedding_108,embedding_109,embedding_110,embedding_111,embedding_112,embedding_113,embedding_114,embedding_115,embedding_116,embedding_117,embedding_118,embedding_119,embedding_120,embedding_121,embedding_122,embedding_123,embedding_124,embedding_125,embedding_126,embedding_127,embedding_128,embedding_129,embedding_130,embedding_131,embedding_132,embedding_133,embedding_134,embedding_135,embedding_136,embedding_137,embedding_138,embedding_139,embedding_140,embedding_141,embedding_142,embedding_143,embedding_144,embedding_145,embedding_146,embedding_147,embedding_148,embedding_149,embedding_150,embedding_151,embedding_152,embedding_153,embedding_154,embedding_155,embedding_156,embedding_157,embedding_158,embedding_159,embedding_160,embedding_161,embedding_162,embedding_163,embedding_164,embedding_165,embedding_166,embedding_167,embedding_168,embedding_169,embedding_170,embedding_171,embedding_172,embedding_173,embedding_174,embedding_175,embedding_176,embedding_177,embedding_178,embedding_179,embedding_180,embedding_181,embedding_182,embedding_183,embedding_184,embedding_185,embedding_186,embedding_187,embedding_188,embedding_189,embedding_190,embedding_191,embedding_192,embedding_193,embedding_194,embedding_195,embedding_196,embedding_197,embedding_198,embedding_199,embedding_200,embedding_201,embedding_202,embedding_203,embedding_204,embedding_205,embedding_206,embedding_207,embedding_208,embedding_209,embedding_210,embedding_211,embedding_212,embedding_213,embedding_214,embedding_215,embedding_216,embedding_217,embedding_218,embedding_219,embedding_220,embedding_221,embedding_222,embedding_223,embedding_224,embedding_225,embedding_226,embedding_227,embedding_228,embedding_229,embedding_230,embedding_231,embedding_232,embedding_233,embedding_234,embedding_235,embedding_236,embedding_237,embedding_238,embedding_239,embedding_240,embedding_241,embedding_242,embedding_243,embedding_244,embedding_245,embedding_246,embedding_247,embedding_248,embedding_249,embedding_250,embedding_251,embedding_252,embedding_253,embedding_254,embedding_255,embedding_256,embedding_257,embedding_258,embedding_259,embedding_260,embedding_261,embedding_262,embedding_263,embedding_264,embedding_265,embedding_266,embedding_267,embedding_268,embedding_269,embedding_270,embedding_271,embedding_272,embedding_273,embedding_274,embedding_275,embedding_276,embedding_277,embedding_278,embedding_279,embedding_280,embedding_281,embedding_282,embedding_283,embedding_284,embedding_285,embedding_286,embedding_287,embedding_288,embedding_289,embedding_290,embedding_291,embedding_292,embedding_293,embedding_294,embedding_295,embedding_296,embedding_297,embedding_298,embedding_299,embedding_300,embedding_301,embedding_302,embedding_303,embedding_304,embedding_305,embedding_306,embedding_307,embedding_308,embedding_309,embedding_310,embedding_311,embedding_312,embedding_313,embedding_314,embedding_315,embedding_316,embedding_317,embedding_318,embedding_319,embedding_320,embedding_321,embedding_322,embedding_323,embedding_324,embedding_325,embedding_326,embedding_327,embedding_328,embedding_329,embedding_330,embedding_331,embedding_332,embedding_333,embedding_334,embedding_335,embedding_336,embedding_337,embedding_338,embedding_339,embedding_340,embedding_341,embedding_342,embedding_343,embedding_344,embedding_345,embedding_346,embedding_347,embedding_348,embedding_349,embedding_350,embedding_351,embedding_352,embedding_353,embedding_354,embedding_355,embedding_356,embedding_357,embedding_358,embedding_359,embedding_360,embedding_361,embedding_362,embedding_363,embedding_364,embedding_365,embedding_366,embedding_367,embedding_368,embedding_369,embedding_370,embedding_371,embedding_372,embedding_373,embedding_374,embedding_375,embedding_376,embedding_377,embedding_378,embedding_379,embedding_380,embedding_381,embedding_382,embedding_383
UCAo_wAxH1WT6rFmK5yCd1Cg,0.04781635105609894,0.06638624519109726,-0.032790154218673706,0.01704258844256401,-0.019378820434212685,0.012575061060488224,0.1409219652414322,0.058199867606163025,0.011558466590940952,-0.00867469422519207,0.039430443197488785,-0.05722687393426895,0.05034631863236427,-0.025091081857681274,-0.03420921415090561,-0.003346613608300686,-0.03516508266329765,0.07352609932422638,0.04803509637713432,0.005455199629068375,0.07177219539880753,-0.09392867237329483,-0.050326354801654816,-0.027592109516263008,0.010104339569807053,-0.009273043833673,-0.008994603529572487,0.011661491356790066,0.003358693327754736,-0.22706900537014008,0.05755363777279854,-0.039983637630939484,0.16801324486732483,0.06916160136461258,-0.030273526906967163,0.09614525735378265,-0.01540940161794424,0.031216153874993324,0.07717511057853699,0.014862185344099998,-0.037985678762197495,0.04052790254354477,0.01971224695444107,0.11339066922664642,0.04440128803253174,0.04895791411399841,0.05630370229482651,-0.009262609295547009,-0.011165754869580269,0.061311908066272736,0.056635402143001556,-0.07492531090974808,-0.0875176191329956,-0.06991112977266312,0.04241807386279106,0.07986055314540863,0.06879006326198578,0.032321102917194366,-0.01887557841837406,-0.014261720702052116,-0.027308998629450798,-0.03580484539270401,-0.25828391313552856,0.057479746639728546,-0.11447726935148239,-0.08307788521051407,-0.024485670030117035,-0.007269488647580147,-0.06238832324743271,0.07706035673618317,-0.014111810363829136,-0.0051733339205384254,-0.04402773827314377,0.055958911776542664,0.05711992084980011,-0.03769003599882126,-0.01183075737208128,0.04339306801557541,-0.02767673321068287,-0.02225342020392418,0.09380961954593658,0.038510486483573914,0.06301470100879669,-0.05560328811407089,-0.02630820870399475,0.038380276411771774,0.0004848861135542393,0.02437612973153591,0.049783915281295776,-0.04875790327787399,-0.012098261155188084,-0.008947481401264668,0.13014446198940277,-0.013498209416866302,0.13511432707309723,-0.02330213412642479,0.031147005036473274,-0.09880296140909195,0.07691728323698044,1.1240278482437134,0.01918005757033825,0.07240649312734604,0.00785973109304905,0.09731042385101318,-0.025229930877685547,-0.027972327545285225,-0.015523048117756844,0.0063041821122169495,-0.006210617255419493,-0.02186581864953041,-0.023367803543806076,-0.02202511951327324,-0.06385745108127594,-0.00906164851039648,-0.005962502211332321,-0.03980669379234314,-0.0385637991130352,0.05486810952425003,0.015112493187189102,0.09105625748634338,-0.0032205507159233093,-0.04661939665675163,0.019234705716371536,-0.05414246767759323,-0.06483668833971024,-0.32622799277305603,0.08217699825763702,0.08885860443115234,-0.08027778565883636,0.04414316266775131,0.04108438268303871,0.095670685172081,-0.023720834404230118,0.09275446087121964,-0.05254700779914856,0.0006864685565233231,0.021847836673259735,0.044071100652217865,0.05262588709592819,-0.08923380821943283,-0.12226399034261703,0.15248221158981323,0.016192512586712837,0.03382410854101181,-0.015096377581357956,-0.03975464403629303,-0.036503929644823074,-0.04029468446969986,0.04164709895849228,0.07452230900526047,-0.0034612647723406553,-0.08392242342233658,0.046750232577323914,0.025037016719579697,-0.01751731149852276,-0.05708330124616623,0.02330823801457882,-0.044703513383865356,0.028013020753860474,0.06097659841179848,-0.03478351980447769,0.05564982071518898,0.026670075953006744,-0.042699772864580154,-0.0056166998110711575,-0.14356660842895508,-0.03208635002374649,-0.0344458632171154,0.05769818276166916,0.022621389478445053,0.01604982651770115,-0.010677818208932877,-0.03219251334667206,0.059629734605550766,-0.0026266584172844887,0.08811820298433304,-0.04083595424890518,0.04697464033961296,-0.07763674855232239,0.019093701615929604,-0.026460468769073486,-0.01918177492916584,-0.06421615183353424,0.03171636909246445,0.0311582051217556,0.0187238696962595,-0.017927568405866623,-0.004026347771286964,0.10923336446285248,0.03300802782177925,-0.015054856427013874,-0.024850592017173767,0.013516254723072052,-0.028446916490793228,0.022302774712443352,-0.0022525200620293617,0.04098395258188248,-0.026027657091617584,0.012890790589153767,0.020897172391414642,-0.20730610191822052,-0.050390299409627914,0.006764454301446676,-0.09179474413394928,0.14680393040180206,-0.02378825657069683,0.04692855477333069,0.012550502084195614,0.004111228510737419,0.06641104817390442,-0.046064410358667374,-0.018297014757990837,-0.0648999735713005,-0.01438705064356327,0.08608406782150269,0.0008740723133087158,-0.012364888563752174,-0.042810142040252686,-0.12136290967464447,-0.007751281838864088,0.0058696880005300045,-0.006524985656142235,-0.024768512696027756,-0.31201282143592834,0.08051671832799911,-0.09087858349084854,-0.10124996304512024,0.11575596034526825,0.04561951011419296,-0.027197130024433136,-0.0394982174038887,0.034518640488386154,0.05613277480006218,0.003404701594263315,-0.09114155918359756,-0.0631360113620758,0.007369155064225197,-0.00816434994339943,-0.097528375685215,-0.07431317865848541,-0.011110612191259861,-0.059341780841350555,-0.016025155782699585,0.07903497666120529,0.043223053216934204,-0.0648692175745964,-0.09233816713094711,0.09815967082977295,-0.0316864512860775,0.20517180860042572,-0.11269424855709076,-0.0767812728881836,-0.050145089626312256,0.06455136835575104,0.01105746440589428,-0.03834942728281021,0.005685900337994099,0.014876876026391983,-0.044291477650403976,0.05328528583049774,0.04541540890932083,-0.10074303299188614,-0.08576711267232895,0.009721227921545506,0.04523928835988045,-0.048431605100631714,-0.03189953416585922,0.16109734773635864,0.025707360357046127,0.0018405322916805744,-0.10171233117580414,-0.033080942928791046,0.032710686326026917,-0.014327369630336761,0.05634281039237976,-0.03572330251336098,0.01112876832485199,-0.12742233276367188,0.02653387188911438,0.01898329332470894,-0.025267576798796654,-0.12652668356895447,0.05854584276676178,0.10424380749464035,-0.05105467885732651,-0.014393134973943233,-0.05541728436946869,0.06317146122455597,-0.06571289896965027,0.01168210431933403,-0.009146206080913544,0.12013913691043854,-0.17390862107276917,-0.023105887696146965,0.008464355021715164,0.060482267290353775,-0.02457723580300808,0.06154405325651169,-0.07325968146324158,0.09157843142747879,0.06987487524747849,-0.07861743122339249,-0.06332637369632721,-0.03556439280509949,-0.03389514610171318,-0.038470253348350525,0.020077915862202644,-0.007800903636962175,-0.00035419780761003494,0.0066609373316168785,-0.14460062980651855,-0.007140075787901878,-0.04514656215906143,0.019127115607261658,0.054650358855724335,0.013346645049750805,-0.014213073998689651,-0.03186086565256119,-0.035234175622463226,-0.3949592113494873,-0.048915255814790726,-0.04469304531812668,-0.07606663554906845,0.04762697592377663,0.0333627387881279,-0.017632566392421722,-0.02747645601630211,-0.022510254755616188,0.0019381738966330886,-0.0072663165628910065,-0.057059407234191895,0.012761429883539677,-0.015605568885803223,0.010291601531207561,0.03684384375810623,0.05100233480334282,-0.04587610810995102,0.006469254847615957,0.010093343444168568,-0.07269004732370377,0.15491892397403717,0.10611540079116821,-0.009296530857682228,-0.0792069286108017,-0.07783104479312897,-0.07572236657142639,0.011138822883367538,-0.0884704440832138,0.033345431089401245,-0.010690271854400635,0.04775002598762512,0.0815279483795166,-0.059072963893413544,-0.053312335163354874,-0.07765284180641174,0.08222897350788116,0.0034987404942512512,-0.0036858401726931334,0.010547160170972347,0.04929179698228836,0.045616522431373596,-0.038100771605968475,0.01812877133488655,0.056110680103302,0.011605537496507168,0.10607003420591354,-0.050440870225429535,-0.042552173137664795,-0.09291774779558182,-0.005199028644710779,0.0387093648314476,0.0009784647263586521,0.04762358218431473,-0.016197888180613518,0.04303332790732384,0.01413208432495594,-0.038559336215257645,0.04619002714753151,-0.046468377113342285,0.09336479008197784,0.08891595155000687,-0.026841850951313972,-0.06840258836746216,0.10480678081512451
